digraph Tree {
node [shape=box] ;
0 [label="Agency_Code <= -0.811\ngini = 0.426\nsamples = 2100\nvalue = [1453, 647]\nclass = No"] ;
1 [label="Sales <= -0.633\ngini = 0.477\nsamples = 647\nvalue = [254, 393]\nclass = Yes"] ;
0 -> 1 [labeldistance=2.5, labelangle=45, headlabel="True"] ;
2 [label="gini = 0.31\nsamples = 73\nvalue = [59, 14]\nclass = No"] ;
1 -> 2 ;
3 [label="Sales <= -0.104\ngini = 0.449\nsamples = 574\nvalue = [195, 379]\nclass = Yes"] ;
1 -> 3 ;
4 [label="gini = 0.495\nsamples = 270\nvalue = [121, 149]\nclass = Yes"] ;
3 -> 4 ;
5 [label="gini = 0.368\nsamples = 304\nvalue = [74, 230]\nclass = Yes"] ;
3 -> 5 ;
6 [label="Product Name <= -0.128\ngini = 0.289\nsamples = 1453\nvalue = [1199, 254]\nclass = No"] ;
0 -> 6 [labeldistance=2.5, labelangle=-45, headlabel="False"] ;
7 [label="Commision <= -0.155\ngini = 0.144\nsamples = 665\nvalue = [613, 52]\nclass = No"] ;
6 -> 7 ;
8 [label="gini = 0.121\nsamples = 590\nvalue = [552, 38]\nclass = No"] ;
7 -> 8 ;
9 [label="gini = 0.304\nsamples = 75\nvalue = [61, 14]\nclass = No"] ;
7 -> 9 ;
10 [label="Sales <= -0.407\ngini = 0.381\nsamples = 788\nvalue = [586, 202]\nclass = No"] ;
6 -> 10 ;
11 [label="gini = 0.252\nsamples = 351\nvalue = [299, 52]\nclass = No"] ;
10 -> 11 ;
12 [label="gini = 0.451\nsamples = 437\nvalue = [287, 150]\nclass = No"] ;
10 -> 12 ;
}